#include <stdio.h>
//define
#define CONV1D_1_C_IN 12
#define CONV1D_1_L 20
#define CONV1D_1_K 3
#define CONV1D_1_C_OUT 6
#define CONV1D_1_STRIDE 1

#define CONV1D_1_L_OUT ((CONV1D_1_L - CONV1D_1_K) / CONV1D_1_STRIDE + 1)
#define LINEAR_1_C_IN (CONV1D_1_C_OUT * CONV1D_1_L_OUT)

#define LINEAR_1_C_OUT 4

static float conv1d_1_weight[CONV1D_1_C_OUT][CONV1D_1_C_IN][CONV1D_1_K] = {{{-0.05915604531764984, -0.1444162130355835, -0.13048049807548523}, {0.14698287844657898, -0.11699950695037842, 0.008671925403177738}, {0.009098815731704235, -0.1314452886581421, 0.10599702596664429}, {0.08331727981567383, 0.10229095816612244, -0.060227811336517334}, {-0.09177342802286148, -0.14020666480064392, 0.09306728094816208}, {-0.07533138990402222, -0.026941146701574326, 0.08754538744688034}, {-0.140764057636261, 0.010647649876773357, 0.13654761016368866}, {-0.025579167529940605, -0.07919498533010483, 0.08266488462686539}, {-0.05307271331548691, 0.09774105995893478, -0.0263891089707613}, {-0.05806143209338188, 0.13567471504211426, 0.07298394292593002}, {-0.0006520113092847168, 0.023999633267521858, 0.05889472737908363}, {0.007328048814088106, 0.04918920621275902, -0.05703789368271828}}, {{-0.13539308309555054, -0.013930227607488632, -0.14150981605052948}, {-0.0855611115694046, 0.0393899530172348, 0.07125089317560196}, {-0.05016138032078743, 0.036681871861219406, -0.0136346947401762}, {-0.0026607317849993706, -0.03250376507639885, 0.08805790543556213}, {-0.00020043815311510116, 0.11635630577802658, 0.11411328613758087}, {-0.16536405682563782, 0.012735128402709961, -0.008494111709296703}, {-0.17377401888370514, -0.030567409470677376, -0.07949952781200409}, {0.03586897253990173, -0.07610059529542923, 0.06008337438106537}, {0.08352773636579514, 0.1146523505449295, -0.058143142610788345}, {0.08404740691184998, 0.10060318559408188, 0.09456772357225418}, {0.035206422209739685, -0.0328841395676136, -0.16103114187717438}, {-0.1852521002292633, 0.06680738925933838, 0.0632806196808815}}, {{-0.14344865083694458, -0.017502332106232643, -0.11354903876781464}, {0.023701094090938568, 0.07686444371938705, 0.10661385953426361}, {0.16760185360908508, -0.033736035227775574, 0.16055113077163696}, {0.042358048260211945, -0.11012190580368042, 0.06136736273765564}, {-0.0035413852892816067, -0.06991088390350342, 0.02704504132270813}, {-0.013270938768982887, 0.005706405267119408, 0.05553540959954262}, {0.16440434753894806, -0.060236237943172455, -0.011062798090279102}, {0.09246408194303513, -0.0289116483181715, 0.0019242058042436838}, {0.06533938646316528, -0.08414431661367416, -0.07515774667263031}, {0.034331314265728, 0.019997116178274155, 0.0029643008019775152}, {0.05245937034487724, -0.006401788908988237, -0.09678854048252106}, {-0.02048078179359436, 0.004016791004687548, -0.076280377805233}}, {{0.06615951657295227, 0.07728441804647446, -0.10943154245615005}, {0.01830538921058178, -0.13843205571174622, 0.1114601269364357}, {0.014429718255996704, -0.08965687453746796, 0.09423695504665375}, {0.0008233458502218127, -0.06053324416279793, -0.06340053677558899}, {-0.14903715252876282, 0.07381714880466461, 0.021428225561976433}, {-0.114982008934021, 0.007879229262471199, -0.12378546595573425}, {0.13755987584590912, 0.01737974025309086, 0.054614417254924774}, {0.07449579238891602, 0.13539087772369385, -0.028080347925424576}, {-0.03601757436990738, -0.03153371810913086, -0.1368548423051834}, {0.06011975184082985, 0.09163130819797516, 0.06387094408273697}, {0.13988333940505981, -0.128723606467247, -0.026998747140169144}, {-0.09753081947565079, -0.009057982824742794, -0.021184273064136505}}, {{0.1527010053396225, 0.0657891035079956, 0.014652767218649387}, {0.0651891827583313, -0.11435991525650024, 0.15900689363479614}, {-0.10776663571596146, 0.17246092855930328, -0.029268251731991768}, {0.1193654015660286, -0.09408845752477646, 0.1497364044189453}, {0.0013513480080291629, 0.07922214269638062, 0.09161383658647537}, {-0.1447533816099167, -0.04617335647344589, 0.08783791959285736}, {0.02329202927649021, 0.1766434609889984, -0.10604450106620789}, {-0.01772051490843296, -0.11602681130170822, 0.17511089146137238}, {-0.08506642282009125, -0.021649537608027458, 0.1271764487028122}, {-0.0437924861907959, -0.10213754326105118, -0.12398737668991089}, {-0.13872253894805908, -0.133433535695076, -0.08605669438838959}, {-0.1227479800581932, -0.07715427130460739, -0.053744468837976456}}, {{0.09250365197658539, -0.17488452792167664, -0.15507058799266815}, {0.07671316713094711, 0.0027201895136386156, -0.040508486330509186}, {-0.08706405758857727, 0.11449345201253891, 0.022796645760536194}, {0.09004613012075424, 0.07001694291830063, -0.007202319800853729}, {0.08533481508493423, -0.12681463360786438, 0.08772265911102295}, {-0.05813194811344147, -0.12591221928596497, 0.015340256504714489}, {-0.13136684894561768, 0.015488195233047009, 0.06892959773540497}, {0.026812521740794182, -0.09021629393100739, 0.0323650985956192}, {-0.05159857124090195, 0.04943053796887398, 0.12361736595630646}, {0.027587780728936195, -0.0726599469780922, -0.07835741341114044}, {-0.16021080315113068, -0.14573584496974945, 0.09630169719457626}, {-0.1340816169977188, 0.12455577403306961, 0.08340491354465485}}};
static float conv1d_1_bias[CONV1D_1_C_OUT] = {-0.09682799130678177, 0.052111852914094925, -0.14004510641098022, 0.11948347091674805, -0.004493364132940769, -0.0019219231326133013};

static float linear_1_weight[LINEAR_1_C_OUT][LINEAR_1_C_IN] = {{0.03838670626282692, 0.036715708673000336, 0.0029270818922668695, -0.06094697490334511, 0.023910675197839737, 0.06755023449659348, -0.11280281841754913, -0.040932659059762955, 0.0014384461101144552, 0.0944276675581932, -0.047465432435274124, -0.061244308948516846, -0.04344683885574341, -0.0009184869704768062, 0.019336851313710213, -0.0010564990807324648, -0.042641058564186096, -0.04812924563884735, 0.004280987661331892, -0.05677966773509979, -0.054503433406353, 0.048459604382514954, 0.05664769187569618, -0.07517965883016586, 0.053964804857969284, 0.118618905544281, -0.05814548581838608, 0.02584122307598591, -0.030886352062225342, 0.08461381494998932, 0.04740723967552185, -0.03748497739434242, 0.09673838317394257, -0.07475538551807404, -0.00948983896523714, -0.02473256178200245, -0.07641947269439697, -0.024303825572133064, -0.043165236711502075, -0.0773233100771904, 0.061862196773290634, 0.08094941079616547, 0.06699084490537643, 0.050212811678647995, -0.10357212275266647, 0.06353803724050522, 0.05854111909866333, 0.09334132820367813, -0.06414952874183655, -0.04966322332620621, 0.028042297810316086, -0.04603967070579529, -0.04848556965589523, -0.07487503439188004, 4.951493247062899e-05, 0.056246377527713776, 0.008535871282219887, -0.03797779977321625, 0.026126762852072716, -0.058074917644262314, 0.00036766601260751486, -0.047602493315935135, 0.08158200234174728, 0.06096666678786278, -0.07056862860918045, 0.02431926690042019, -0.08996069431304932, -0.0016327386256307364, 0.01344542857259512, -0.04816330224275589, 0.018528778105974197, -0.02396899275481701, 0.002031800802797079, -0.08295173197984695, -0.023547358810901642, 0.05200604721903801, -0.08597787469625473, -0.03842620179057121, -0.0528789646923542, -0.05674779787659645, 0.03651321679353714, 0.048858366906642914, -0.056316446512937546, -0.02472740225493908, 0.0028450535610318184, 0.05469290539622307, -0.09349633753299713, 0.03865707293152809, 0.04260875657200813, -0.049541961401700974, 0.08379505574703217, 0.021895430982112885, -0.005986630916595459, 0.0032372071873396635, 0.07667693495750427, -0.04961856082081795, -0.00996208842843771, 0.02946082316339016, -0.07614491879940033, -0.08250882476568222, -0.06706229597330093, -0.010944434441626072, -0.07632075250148773, -0.05805544927716255, 0.03790878877043724, -0.0622587725520134, -0.03835214301943779, 0.05757179483771324}, {-0.06748867779970169, 0.026618408039212227, -0.04966895282268524, -0.05413948744535446, 0.05763128772377968, -0.07379370927810669, -0.04119843244552612, -0.014105025678873062, -0.030875375494360924, 0.04318097233772278, 0.02978663332760334, -0.033117469400167465, 0.07871099561452866, -0.02508539706468582, -0.018418045714497566, -0.033758778125047684, -0.0645580142736435, -0.03799523413181305, 0.06460578739643097, -0.01749119907617569, 0.06034977734088898, 0.03142582252621651, -0.007598353084176779, -0.10086650401353836, 0.0492972806096077, 0.010817906819283962, -0.05424719676375389, 0.08001704514026642, -0.06625474244356155, 0.039192065596580505, -0.06203024089336395, 0.031282585114240646, -0.09313970804214478, -0.050195831805467606, 0.022379035130143166, -0.12000174075365067, 0.010613178834319115, 0.05274369567632675, 0.05540755018591881, -0.0027403973508626223, -0.00612091738730669, -0.04960831627249718, -0.07501804828643799, 0.03342680260539055, -0.0847584679722786, 0.06271998584270477, -0.062034644186496735, -0.010244152508676052, 0.03944791853427887, 0.0038631034549325705, -0.03182671591639519, -0.022149337455630302, 0.09747899323701859, 0.001412465120665729, -0.002025180496275425, -0.06543029099702835, -0.0472649484872818, 0.0027036566752940416, -0.022283287718892097, 0.06622053682804108, 0.09841068089008331, -0.07281531393527985, -0.035077325999736786, -0.011690191924571991, -0.025841088965535164, -0.010032164864242077, -0.031491536647081375, 0.08951340615749359, -0.0037445933558046818, -0.04168113321065903, 0.021606406196951866, 0.09402970224618912, 0.014757639728486538, 0.00984110962599516, 0.032157961279153824, -0.005118455272167921, -0.02812732197344303, -0.07489365339279175, -0.02286810241639614, -0.05252815783023834, -0.059002622961997986, 0.051324084401130676, -0.018060514703392982, 0.0215682964771986, -0.03628486767411232, 0.04692565277218819, 0.020046893507242203, 0.023491138592362404, 0.04549409821629524, -0.06842783838510513, 0.003987625706940889, 0.036327753216028214, -0.07969736307859421, 0.06293470412492752, -0.008158649317920208, 0.009414498694241047, -0.05347847938537598, 0.00805424340069294, -0.06478693336248398, 0.056166548281908035, 0.08098606020212173, 0.019671496003866196, -0.06580384075641632, 0.033599983900785446, 0.061197273433208466, -0.0025060309562832117, 0.004712070804089308, 0.09072492271661758}, {0.0750022903084755, -0.04165032505989075, -0.0046509564854204655, -0.06305623054504395, -0.03729402646422386, 0.02167307212948799, -0.08026442676782608, 0.037225764244794846, -0.07293792068958282, 0.03206312656402588, -0.09072484821081161, 0.007884819991886616, 0.025457028299570084, -0.036826495081186295, 0.056674774736166, -0.0009018693235702813, 0.06761384010314941, -0.055008284747600555, -0.08184054493904114, 0.03983532264828682, -0.03244030103087425, -0.027188410982489586, -0.03981525078415871, -0.041885796934366226, -0.026938045397400856, 0.002666786313056946, -0.01660560630261898, -0.06333689391613007, -0.019523143768310547, 0.010523570701479912, -0.08600199222564697, 0.024477776139974594, 0.04192790016531944, -0.03035529889166355, 0.036822885274887085, 0.10164627432823181, 0.0036951866932213306, -0.0060271923430264, -0.014420903287827969, -0.009544446133077145, 0.02381691336631775, -0.006009410135447979, 0.05089955031871796, 0.024580778554081917, -0.06453869491815567, -0.04873749986290932, -0.04972266033291817, 0.03162930905818939, 0.050631530582904816, 0.026877716183662415, 0.09431582689285278, 0.11293275654315948, -0.04134441167116165, -0.026496831327676773, 0.08361425250768661, -0.06679324060678482, -0.103211410343647, 0.003131948644295335, 0.07958590984344482, 0.08603974431753159, -0.03952482342720032, 0.06007422134280205, -0.02559719607234001, -0.07355750352144241, -0.07269686460494995, 0.05931777134537697, 0.0013134684413671494, -0.0030564013868570328, -0.05216917395591736, 0.023746028542518616, 0.015077673830091953, 0.003641745075583458, -0.04368513077497482, 0.04053386300802231, 0.05046916380524635, 0.0025353645905852318, 0.01337837427854538, 0.08355226367712021, 0.009488462470471859, -0.08330579102039337, 0.03227441385388374, -0.05149739608168602, 0.009852875024080276, 0.035512179136276245, 0.05329512804746628, -0.0011260107858106494, -0.06264054775238037, 0.011176524683833122, 0.054887570440769196, -0.09623555094003677, -0.017795125022530556, 0.06358131766319275, -0.08741521090269089, 0.05591622740030289, -0.05194314569234848, 0.008403800427913666, 0.06953539699316025, -0.021214287728071213, 0.019756654277443886, 0.024114612489938736, -0.06107165291905403, 0.05685490742325783, -0.0318562388420105, -0.0016187598230317235, 0.012563943862915039, 0.01475231908261776, 0.027651142328977585, 0.059688277542591095}, {-0.020196935161948204, -0.05214796960353851, -0.055583029985427856, 0.06079500541090965, -0.03787415474653244, -0.07599123567342758, -0.008792291395366192, 0.06344953179359436, 0.04674617573618889, -0.03041461482644081, -0.02535967156291008, 0.01989438571035862, -0.06434611231088638, 0.022977184504270554, 0.07440441101789474, 0.04915022477507591, -0.0325838103890419, -0.08805564790964127, 0.05685586482286453, -0.033148374408483505, -0.06301223486661911, 0.01805242709815502, -0.026586974039673805, -0.06030924245715141, 0.0507168285548687, 0.09205905348062515, 0.04326197877526283, -0.03379771485924721, 0.000332506257109344, -0.09010353684425354, -0.08420263230800629, 0.02230072021484375, -0.017516514286398888, 0.09648854285478592, 0.045487646013498306, 0.022670801728963852, -0.0722382515668869, 0.01747385784983635, 0.0902545154094696, 0.027111129835247993, -0.013207444921135902, -0.028660006821155548, 0.06479032337665558, 0.09039373695850372, 0.06383637338876724, 0.09540185332298279, 0.03660937398672104, 0.041173167526721954, 0.07860278338193893, -0.05717489495873451, -0.09007607400417328, 0.01851225271821022, -0.05006815120577812, 0.09195628762245178, 0.023708771914243698, 0.050969209522008896, 0.029617728665471077, -0.036926571279764175, 0.008313709869980812, -0.013733439147472382, 0.01766696572303772, 0.019418029114603996, -0.00861702486872673, -0.05949382483959198, 0.0664125606417656, 0.04407566413283348, -0.05198482424020767, -0.010908639058470726, 0.03380566090345383, -0.03036424331367016, 0.009790152311325073, -0.0015880301361903548, 0.016134651377797127, -0.05849511921405792, -0.014088448137044907, 0.06797601282596588, -0.05695430561900139, -0.04430489242076874, -0.02843783237040043, 0.042361125349998474, 0.018373873084783554, 0.024189095944166183, 0.018405968323349953, 0.04742232337594032, -0.07702552527189255, 0.03600529581308365, -0.0764801949262619, 0.05523933097720146, -0.02765900455415249, 0.0727343037724495, 0.031899064779281616, 0.030920976772904396, -0.08933749049901962, -0.02764817327260971, 0.01673881895840168, -0.08968263864517212, 0.008747140876948833, -0.0788547545671463, -0.027281103655695915, 0.03821961581707001, 0.058921970427036285, 0.045654118061065674, 0.020729489624500275, 0.028534965589642525, -0.003890449646860361, -0.011083458550274372, 0.030834361910820007, 0.037268299609422684}};
static float linear_1_bias[LINEAR_1_C_OUT] = {-0.0680074393749237, 0.08050881326198578, -0.0035349687095731497, -0.0670536532998085};