#include <stdio.h>
//define
#define CONV1D_1_C_IN 12
#define CONV1D_1_L 30
#define CONV1D_1_K 3
#define CONV1D_1_C_OUT 12
#define CONV1D_1_STRIDE 1

#define CONV1D_2_C_IN 12
#define CONV1D_2_L ((CONV1D_1_L - CONV1D_1_K) / CONV1D_1_STRIDE + 1)
#define CONV1D_2_K 3
#define CONV1D_2_C_OUT 12
#define CONV1D_2_STRIDE 1

#define CONV1D_3_C_IN 12
#define CONV1D_3_L ((CONV1D_2_L - CONV1D_2_K) / CONV1D_2_STRIDE + 1)
#define CONV1D_3_K 3
#define CONV1D_3_C_OUT 12
#define CONV1D_3_STRIDE 1

#define CONV1D_3_L_OUT ((CONV1D_3_L - CONV1D_3_K) / CONV1D_3_STRIDE + 1)
#define LINEAR_1_C_IN (CONV1D_3_C_OUT * CONV1D_3_L_OUT)

#define LINEAR_1_C_OUT 4

static float conv1d_1_weight[CONV1D_1_C_OUT][CONV1D_1_C_IN][CONV1D_1_K] = {{{0.007947105914354324, 0.15026099979877472, 0.04376158118247986}, {-0.0054748510010540485, -0.044724058359861374, 0.0030848102178424597}, {0.15339748561382294, 0.12201450020074844, -0.1319449543952942}, {0.07816676795482635, 0.0005029274034313858, -0.15648777782917023}, {0.1039315015077591, 0.06719252467155457, 0.06757783889770508}, {-0.10790497064590454, 0.01751704514026642, -0.06376625597476959}, {-0.08912723511457443, 0.10512281954288483, 0.05664689466357231}, {0.022568972781300545, -0.0319988988339901, 0.046015623956918716}, {-0.06499790400266647, -0.07656126469373703, -0.1556810736656189}, {-0.1462453156709671, 0.09195214509963989, -0.03941337764263153}, {0.05665585771203041, 0.1186055913567543, 0.04294610396027565}, {0.13046476244926453, -0.02586553804576397, -0.048059914261102676}}, {{-0.01363904494792223, 0.12250366806983948, -0.08520005643367767}, {-0.060848597437143326, 0.013934779912233353, -0.10986260324716568}, {-0.012353925965726376, 0.10740572959184647, 0.1268841028213501}, {-0.12091728299856186, -0.024439239874482155, -0.009188969619572163}, {0.16280142962932587, 0.021211305633187294, -0.13535639643669128}, {-0.12414981424808502, -0.05209524556994438, 0.10315527021884918}, {-0.15220250189304352, -0.003790479153394699, -0.09565652161836624}, {-0.16281338036060333, 0.11600016057491302, -0.12252071499824524}, {0.09625086188316345, -0.13677911460399628, -0.16577665507793427}, {-0.15177182853221893, 0.01006485428661108, 0.02455899678170681}, {-0.010854859836399555, -0.11129444092512131, -0.10482858121395111}, {-0.16613219678401947, 0.00045168434735387564, -0.06655825674533844}}, {{-0.09562667459249496, 0.10950515419244766, -0.12617266178131104}, {0.17706826329231262, -0.18349020183086395, 0.1579153686761856}, {0.06605560332536697, 0.1450825184583664, 0.106647789478302}, {-0.07566551119089127, 0.1584940403699875, -0.1611204892396927}, {-0.0231412872672081, -0.07538411766290665, -0.09799367934465408}, {-0.11688709259033203, 0.17203517258167267, 0.06308566778898239}, {0.03022153116762638, -0.010619264096021652, 0.12111105769872665}, {0.12527324259281158, 0.12021443992853165, -0.09298641234636307}, {-0.1393674612045288, 0.17421279847621918, 0.046065766364336014}, {-0.04911605641245842, -0.1390874832868576, -0.08641764521598816}, {-0.04977286607027054, 0.16339212656021118, -0.09327790886163712}, {-0.08964919298887253, 0.09169412404298782, -0.04418694227933884}}, {{-0.09159888327121735, 0.2109743356704712, 0.02815941721200943}, {0.022926149889826775, 0.03178376704454422, 0.011259416118264198}, {0.16330790519714355, -0.07880394160747528, -0.03205006197094917}, {0.03840846195816994, 0.17011874914169312, 0.10714541375637054}, {-0.0973747968673706, -0.09525998681783676, -0.08360632508993149}, {0.16362738609313965, 0.03823966532945633, 0.12259915471076965}, {0.1769985854625702, -0.10217678546905518, 0.10658486932516098}, {-0.0598725825548172, -0.029674597084522247, -0.055336445569992065}, {0.10262323915958405, -0.0734318420290947, 0.0856039822101593}, {-0.10233832895755768, 0.055408552289009094, -0.1518799364566803}, {-0.15199026465415955, -0.15818150341510773, -0.011596468277275562}, {-0.16561396420001984, 0.1423264592885971, -0.02690466307103634}}, {{0.011663227342069149, -0.10146352648735046, -0.09367544203996658}, {0.14885765314102173, -0.10524263978004456, -0.13833095133304596}, {0.05422469601035118, -0.1015889048576355, -0.13423852622509003}, {0.06956331431865692, -0.06866398453712463, -0.03041146509349346}, {0.14037054777145386, -0.08592799305915833, 0.10231375694274902}, {0.06186065450310707, -0.049783382564783096, -0.1513773500919342}, {-0.07215655595064163, -0.1278495341539383, 0.17188449203968048}, {-0.05985239893198013, 0.005618498660624027, -0.10068587213754654}, {-0.03337816521525383, -0.03863009437918663, 0.11548258364200592}, {0.04726060852408409, 0.06422039121389389, 0.09733603149652481}, {-0.1624479442834854, -0.13915666937828064, 0.018920259550213814}, {-0.04262005165219307, -0.008851459249854088, 0.06717298179864883}}, {{-0.10521749407052994, -0.11747202277183533, 0.06809826195240021}, {0.0648561343550682, 0.09059122949838638, 0.09043756127357483}, {-0.01854834333062172, 0.024386394768953323, -0.13454382121562958}, {0.06541547924280167, -0.12095041573047638, -0.11502297967672348}, {0.12191970646381378, -0.06779041141271591, -0.1154671385884285}, {-0.05195077136158943, -0.02768634632229805, 0.013416877947747707}, {-0.04674643650650978, 0.05214114487171173, 0.06691206246614456}, {0.15559056401252747, 0.059902288019657135, 0.10224743187427521}, {-0.14451545476913452, 0.07540307939052582, -0.036148302257061005}, {0.08275352418422699, 0.038988545536994934, -0.16037897765636444}, {0.07736386358737946, 0.1432989239692688, 0.15113717317581177}, {-0.0279806200414896, 0.11625494807958603, 0.02880123257637024}}, {{0.017726093530654907, 0.052625466138124466, -0.16924308240413666}, {-0.0670965388417244, -0.15838339924812317, -0.01154363714158535}, {-0.12876161932945251, 0.0658760517835617, 0.0917399451136589}, {-0.14690212905406952, 0.07260008156299591, 0.05443587899208069}, {0.07146146148443222, -0.04796559363603592, 0.12107137590646744}, {-0.1645307093858719, -0.05048811435699463, -0.09277337789535522}, {0.14241917431354523, -0.1274339109659195, 0.004516805522143841}, {0.07435683161020279, -0.15847735106945038, 0.011954260990023613}, {-0.09244143962860107, 0.1482476145029068, -0.0956660732626915}, {-0.1325017511844635, 0.05271518975496292, -0.10148515552282333}, {0.055426593869924545, -0.07767322659492493, 0.10347995907068253}, {0.09456159919500351, -0.030907675623893738, -0.09944984316825867}}, {{-0.0007000176701694727, 0.11137770116329193, -0.19908742606639862}, {0.13890258967876434, -0.021377699449658394, 0.043872106820344925}, {0.003094445914030075, 0.09512574225664139, -0.15655453503131866}, {0.019333062693476677, -0.09986449033021927, 0.060429926961660385}, {0.08998209238052368, 0.024613957852125168, 0.127205491065979}, {-0.08751194924116135, -0.13298827409744263, 0.06357364356517792}, {-0.16514739394187927, 0.16758130490779877, -0.09942090511322021}, {0.1004963219165802, 0.09389462321996689, 0.0188797265291214}, {-0.0944485068321228, 0.07485758513212204, 0.11393848061561584}, {-0.12931041419506073, -0.012404648587107658, -0.10065755248069763}, {0.13282042741775513, 0.04244951903820038, -0.07755381613969803}, {0.0704311802983284, -0.16505147516727448, 0.13479717075824738}}, {{0.11129337549209595, -0.0028876771684736013, 0.13495707511901855}, {-0.15144526958465576, -0.06540465354919434, 0.12403615564107895}, {0.08830294758081436, -0.04440794885158539, -0.04672667384147644}, {0.1499142348766327, -0.0033028179313987494, 0.03936450183391571}, {-0.11908754706382751, 0.08213165402412415, 0.08565736562013626}, {-0.07910081744194031, 0.04399579390883446, 0.026202823966741562}, {-0.08331506699323654, 0.08811625093221664, -0.027042049914598465}, {-0.1445942521095276, -0.04486270993947983, 0.125222846865654}, {-0.15753307938575745, 0.07336568832397461, -0.1431187391281128}, {0.02251284383237362, -0.011770288459956646, -0.05114966630935669}, {0.11253908276557922, 0.14039599895477295, -0.012821102514863014}, {-0.10745113343000412, -0.09427997469902039, 0.013123838230967522}}, {{-0.05449791997671127, 0.07005774229764938, 0.011068039573729038}, {0.01974545791745186, -0.037963129580020905, 0.07474759221076965}, {-0.06338418275117874, -0.01634412817656994, 0.09900164604187012}, {0.05964037403464317, -0.028552360832691193, -0.0662393569946289}, {-0.042403269559144974, -0.08367069065570831, 0.06107431650161743}, {-0.07894958555698395, 0.015818607062101364, -0.06843430548906326}, {0.049229107797145844, 0.09530064463615417, 0.02817157469689846}, {-0.10508511960506439, 0.09800411015748978, -0.08572011440992355}, {0.1356603056192398, 0.10806584358215332, -0.15441925823688507}, {-0.08776260167360306, 0.00148781796451658, 0.02238425984978676}, {0.07166947424411774, 0.03854706883430481, 0.127187579870224}, {-0.11446165293455124, -0.1612257957458496, -0.12530693411827087}}, {{-0.09540246427059174, -0.0344901978969574, 0.04783792421221733}, {-0.11383561789989471, -0.09693728387355804, -0.12196425348520279}, {0.024378065019845963, -0.1145864948630333, 0.12689003348350525}, {-0.1461658626794815, 0.14337365329265594, 0.050664592534303665}, {-0.08425493538379669, -0.03658042475581169, -0.008272279985249043}, {-0.0843578651547432, 0.12068605422973633, 0.1648533195257187}, {-0.1292901337146759, -0.04687340930104256, -0.044449418783187866}, {-0.1280789077281952, -0.10433036834001541, 0.05551270395517349}, {-0.1406073123216629, -0.07150314003229141, 0.1520867645740509}, {0.08117537200450897, -0.15658371150493622, 0.13620008528232574}, {0.0897148922085762, -0.07041356712579727, -0.11437810212373734}, {0.11369739472866058, -0.11185016483068466, -0.10084124654531479}}, {{0.022691097110509872, 0.04446577653288841, 0.02396457828581333}, {-0.05760796368122101, -0.1428721398115158, 0.02072782628238201}, {-0.04245637729763985, 0.04367237910628319, -0.008737068623304367}, {-0.034136880189180374, 0.08089069277048111, -0.0019295407691970468}, {0.11676779389381409, 0.04840223863720894, -0.09554346650838852}, {0.08939126133918762, 0.02423342876136303, -0.048384930938482285}, {0.13290563225746155, 0.09944666177034378, 0.1582915186882019}, {-0.04331032186746597, -0.13850529491901398, -0.10536662489175797}, {-0.07005961239337921, -0.12218532711267471, -0.08463968336582184}, {-0.15166446566581726, 0.12227006256580353, -0.0775451511144638}, {-0.13255095481872559, 0.13001132011413574, -0.15902875363826752}, {0.15565723180770874, -0.021178441122174263, 0.15662835538387299}}};
static float conv1d_1_bias[CONV1D_1_C_OUT] = {-0.11705943197011948, -0.0009411292849108577, -0.08363727480173111, 0.0013091100845485926, 0.16436567902565002, 0.0636102706193924, 0.14369118213653564, 0.07100214809179306, -0.14507800340652466, -0.11260037869215012, 0.003962645307183266, 0.07245229929685593};

static float conv1d_2_weight[CONV1D_2_C_OUT][CONV1D_2_C_IN][CONV1D_2_K] = {{{0.13741809129714966, -0.08421406894922256, 0.09398848563432693}, {-0.07025618851184845, 0.16426391899585724, -0.08293300122022629}, {0.10852909833192825, -0.06736809760332108, -0.14038029313087463}, {0.09466774016618729, -0.056477148085832596, 0.05634923651814461}, {0.1183800920844078, -0.012606452219188213, -0.16272278130054474}, {-0.07572862505912781, 0.07797783613204956, -0.056668736040592194}, {-0.016509881243109703, -0.0008681225590407848, -0.13006281852722168}, {-0.0275574903935194, 0.07055654376745224, -0.007908460684120655}, {0.07780542969703674, -0.018306342884898186, 0.04562554880976677}, {-0.11490093171596527, 0.15677590668201447, -0.1297943890094757}, {0.06389522552490234, 0.11904524266719818, -0.06070742383599281}, {0.11992114037275314, 0.14317850768566132, -0.09660216420888901}}, {{0.0192476324737072, 0.012843063101172447, 0.16662588715553284}, {-0.044262319803237915, 0.03414448723196983, -0.12766580283641815}, {0.04675682634115219, 0.07110726088285446, 0.02281717211008072}, {-0.1936030089855194, 0.1994597166776657, -0.02761225774884224}, {-0.0639282837510109, -0.15748383104801178, -0.14752109348773956}, {0.15825048089027405, 0.08889475464820862, 0.0890883281826973}, {0.1463107168674469, 0.010026347823441029, 0.04294515773653984}, {-0.06883677840232849, -0.1498703807592392, 0.11480226367712021}, {-0.04896198585629463, -0.07172548770904541, -0.1419554352760315}, {0.1612437516450882, 0.1120840311050415, -0.0788089856505394}, {-0.15507134795188904, -0.11974400281906128, 0.10212522745132446}, {-0.022145653143525124, 0.13109906017780304, -0.15570636093616486}}, {{0.08611370623111725, -0.09511932730674744, 0.04728743061423302}, {-0.1476338803768158, 0.13054803013801575, 0.04053682088851929}, {-0.0275312177836895, -0.15001514554023743, -0.06850259751081467}, {-0.03227289766073227, 0.04606930911540985, 0.10219671577215195}, {0.11094067245721817, -0.11339587718248367, 0.09336777031421661}, {-0.028468992561101913, -0.1546471267938614, -0.018117154017090797}, {0.11296460777521133, -0.040106117725372314, -0.08147291094064713}, {0.043114807456731796, -0.0030464702285826206, -0.01460217498242855}, {-0.1123540922999382, 0.062401629984378815, -0.14102338254451752}, {0.049199383705854416, 0.12179487198591232, -0.10857986658811569}, {-0.14242756366729736, -0.02269051969051361, 0.01982327364385128}, {0.1633492261171341, -0.019023708999156952, 0.007315453607589006}}, {{-0.176423579454422, -0.04533965513110161, 0.08397860080003738}, {0.1229693666100502, -0.013753149658441544, -0.13619089126586914}, {-0.025736430659890175, 0.09937193244695663, 0.09601396322250366}, {-0.15435412526130676, -0.04286247119307518, 0.07877621799707413}, {-0.1133909747004509, -0.04598210006952286, 0.052614081650972366}, {-0.03394336998462677, -0.007530121132731438, -0.0877830982208252}, {-0.1574537307024002, 0.11449918895959854, 0.0385887585580349}, {-0.1241719126701355, 0.13185423612594604, 0.09727487713098526}, {-0.1431727260351181, 0.11848528683185577, 0.1429913192987442}, {0.03702249005436897, -0.0669775977730751, -0.11413578689098358}, {0.09922754764556885, 0.1349935531616211, -0.08527111262083054}, {0.09118595719337463, -0.14599844813346863, 0.0646730586886406}}, {{0.07978447526693344, -0.14219200611114502, -0.07444094121456146}, {-0.07283040136098862, 0.08755018562078476, -0.0013886243104934692}, {-0.0050216312520205975, 0.0038462101947516203, 0.07185504585504532}, {-0.04728905111551285, 0.16402502357959747, 0.14311514794826508}, {-0.034936800599098206, -0.15347358584403992, 0.14475826919078827}, {-0.11379034072160721, -0.09499868750572205, 0.09206515550613403}, {0.027765022590756416, -0.012259740382432938, 0.0023395840544253588}, {-0.03225303068757057, -0.08680415898561478, 0.08652328699827194}, {0.016864469274878502, -0.09274522960186005, 0.1562962383031845}, {-0.10401485860347748, 0.04580676183104515, -0.15790300071239471}, {-0.0015614257426932454, 0.05892053246498108, 0.12825119495391846}, {-0.06813820451498032, -0.037801045924425125, 0.15180908143520355}}, {{0.05196242779493332, 0.03289970010519028, -0.11584029346704483}, {-0.12190631777048111, -0.07948707044124603, -0.055410511791706085}, {-0.056108083575963974, 0.019563626497983932, 0.04412085562944412}, {-0.12867145240306854, -0.07766400277614594, -0.008754950948059559}, {-0.0753510445356369, -0.08635760098695755, 0.08025626838207245}, {0.13765034079551697, 0.14661608636379242, 0.08840251713991165}, {-0.13117927312850952, -0.011330731213092804, 0.010815903544425964}, {0.16934335231781006, -0.14059601724147797, -0.11080474406480789}, {0.12473678588867188, -0.15525870025157928, -0.11117647588253021}, {0.04589461907744408, -0.04395364969968796, 0.027335938066244125}, {0.09797246754169464, -0.14653149247169495, -0.016370436176657677}, {0.023311344906687737, 0.0368054024875164, 0.10021058470010757}}, {{0.1197744756937027, -0.0700676292181015, 0.05382264405488968}, {0.11864828318357468, 0.10532582551240921, 0.04809262976050377}, {0.0682859942317009, -0.1840607076883316, 0.1978224217891693}, {-0.002245861105620861, -0.06318172067403793, 0.07978714257478714}, {0.10746173560619354, -0.16247114539146423, 0.06454606354236603}, {0.033869098871946335, 0.07174070179462433, 0.07105693221092224}, {-0.11811748892068863, 0.08184964954853058, -0.16485168039798737}, {-0.05263282731175423, -0.12918099761009216, 0.0280856192111969}, {0.08843919634819031, 0.09799527376890182, -0.09868058562278748}, {0.03389888256788254, -0.09847450256347656, -0.11701833456754684}, {0.12020845711231232, 0.1146160438656807, -0.011809202842414379}, {-0.029162665829062462, 0.12478959560394287, 0.03622359782457352}}, {{-0.11413238942623138, 0.06958042085170746, 0.07941584289073944}, {-0.10126228630542755, 0.003140463959425688, -0.050986338406801224}, {0.18976537883281708, -0.05035681650042534, 0.05045092850923538}, {0.03554156422615051, 0.1546323448419571, -0.04328124597668648}, {0.09509316086769104, 0.07838050276041031, 0.07484214752912521}, {0.09906827658414841, 0.12980450689792633, -0.10573046654462814}, {0.09886708855628967, -0.1427321583032608, -0.0691869929432869}, {0.0032542909029871225, -0.15211310982704163, -0.11486751586198807}, {0.06506888568401337, 0.14474323391914368, -0.14992062747478485}, {0.10014795511960983, -0.052963219583034515, -0.11305610835552216}, {0.002887779613956809, 0.10002526640892029, 0.10068539530038834}, {0.11462200433015823, -0.15849781036376953, -0.024392705410718918}}, {{-0.060498081147670746, -0.16392110288143158, -0.004076787736266851}, {0.06728104501962662, 0.12467800080776215, 0.06191954016685486}, {0.11166982352733612, -0.05723067745566368, 0.08905574679374695}, {-0.131231427192688, -0.16585904359817505, -0.1542636752128601}, {-0.09426864981651306, -0.10001982003450394, -0.011124718934297562}, {-0.05858546495437622, 0.11959467083215714, -0.14801745116710663}, {0.053483642637729645, -0.07599501311779022, 0.04688534885644913}, {-0.0027387577574700117, 0.009786336682736874, -0.12212955951690674}, {-0.05476965382695198, -0.02862665243446827, -0.020881492644548416}, {0.012834988534450531, -0.06605231761932373, -0.04399818554520607}, {0.034087203443050385, 0.04063624143600464, -0.016896145418286324}, {-0.04074932634830475, 0.11745844781398773, 0.13165022432804108}}, {{-0.11292962729930878, 0.1357450783252716, 0.14657720923423767}, {-0.014171120710670948, 0.0578848272562027, -0.13513818383216858}, {0.1797557920217514, -0.12197326123714447, 0.17039754986763}, {-0.16573910415172577, 0.14972347021102905, -0.12692122161388397}, {-0.04787284880876541, 0.07179901003837585, 0.0364244319498539}, {0.1016228049993515, -0.055210646241903305, -0.10140613466501236}, {0.014077707193791866, 0.12774164974689484, -0.14579354226589203}, {0.12502814829349518, 0.042771149426698685, -0.029779773205518723}, {0.15699875354766846, 0.07137113064527512, 0.07453856617212296}, {0.05612346529960632, -0.06167946383357048, -0.16029930114746094}, {0.06369318813085556, -0.1552443504333496, 0.0830470472574234}, {0.009931109845638275, -0.03709249943494797, -0.011348772794008255}}, {{0.06592751294374466, -0.14840492606163025, 0.07711111754179001}, {-0.14373010396957397, 0.04050788655877113, 0.1445057988166809}, {-0.12421758472919464, 0.13799744844436646, -0.03991805762052536}, {0.056034352630376816, -0.11722221225500107, -0.04596181958913803}, {0.12407904118299484, -0.11661985516548157, 0.0226900614798069}, {0.1141253411769867, -0.1281503289937973, 0.03989788144826889}, {-0.11331361532211304, 0.16310963034629822, 0.1413227617740631}, {-0.011614501476287842, 0.02883363515138626, -0.1039285883307457}, {0.13114126026630402, 0.14824262261390686, 0.09523769468069077}, {-0.13606339693069458, 0.04323621094226837, -0.022068193182349205}, {-0.14144396781921387, 0.1466585248708725, 0.06296034157276154}, {0.0036035107914358377, -0.09438303112983704, -0.12570105493068695}}, {{-0.1744747757911682, 0.12548299133777618, 0.15601703524589539}, {0.11527096480131149, -0.03446995094418526, -0.012988384813070297}, {-0.003644771408289671, 0.135405033826828, 0.08569693565368652}, {0.04118719696998596, 0.16887281835079193, 0.1696990430355072}, {0.042009443044662476, 0.036280713975429535, -0.1202014684677124}, {0.026727166026830673, 0.11799310147762299, -0.1437360942363739}, {-0.06900811195373535, 0.04301000386476517, -0.16215719282627106}, {-0.0741959810256958, 0.06957053393125534, -0.018220163881778717}, {0.008660061284899712, -0.1669052690267563, -0.09351254254579544}, {0.041518695652484894, 0.09125427901744843, 0.0704210177063942}, {-0.06340194493532181, -0.014747516252100468, -0.13643920421600342}, {-0.055118378251791, -0.03248310461640358, 0.0814044177532196}}};
static float conv1d_2_bias[CONV1D_2_C_OUT] = {0.15303048491477966, -0.03506974130868912, 0.11142104119062424, -0.09264872223138809, 0.07534702122211456, -0.13185717165470123, 0.13639989495277405, -0.10603736340999603, 0.13328123092651367, -0.11303608864545822, 0.13656917214393616, 0.08856605738401413};

static float conv1d_3_weight[CONV1D_3_C_OUT][CONV1D_3_C_IN][CONV1D_3_K] = {{{0.09672097116708755, -0.13030774891376495, 0.06052439287304878}, {0.06142323836684227, 0.10789067298173904, 0.009157150983810425}, {-0.16324947774410248, 0.0830409973859787, 0.08556157350540161}, {-0.09689122438430786, 0.13593898713588715, -0.060078468173742294}, {-0.08435671776533127, 0.12393174320459366, 0.06954364478588104}, {0.04003632813692093, -0.1556868702173233, -0.07391136884689331}, {-0.08903885632753372, 0.12821610271930695, -0.1019638329744339}, {0.020177768543362617, -0.1315329372882843, -0.020725339651107788}, {0.15659745037555695, 0.10118559747934341, -0.05107951536774635}, {0.009558398276567459, 0.09481389075517654, 0.05425899103283882}, {0.10971150547266006, -0.07269950956106186, -0.03604591265320778}, {-0.06257772445678711, 0.08441068977117538, 0.07806198298931122}}, {{0.17846648395061493, -0.0008318315376527607, 0.06059441342949867}, {0.048212483525276184, -0.09345246851444244, 0.1468469798564911}, {-0.012157144956290722, 0.07451476901769638, 0.0022894798312336206}, {-0.1587209701538086, 0.15612532198429108, 0.12815037369728088}, {-0.02047077566385269, -0.015791505575180054, 0.08356337994337082}, {0.05685408040881157, -0.023126913234591484, -0.16394586861133575}, {0.030474621802568436, 0.04488728567957878, -0.148235484957695}, {0.15239225327968597, 0.13121278584003448, -0.12246885150671005}, {-0.07500619441270828, 0.1287786215543747, 0.15842673182487488}, {-0.11405076086521149, 0.10353418439626694, -0.10994137823581696}, {-0.1574823409318924, -0.0948055163025856, 0.0995301753282547}, {-0.04525712504982948, 0.12764982879161835, -0.04486898332834244}}, {{-0.05500202998518944, 0.14411841332912445, 0.03787805512547493}, {0.027359694242477417, -0.06802257895469666, -0.018063662573695183}, {-0.06317798048257828, -0.004278357140719891, -0.04843161627650261}, {0.05568784102797508, -0.09665557742118835, 0.13312460482120514}, {-0.00773148937150836, -0.005660451017320156, -0.11162182688713074}, {-0.13606084883213043, 0.15067094564437866, 0.014206252992153168}, {0.1807289868593216, -0.14847306907176971, 0.13917972147464752}, {-0.016460329294204712, 0.03008723445236683, 0.1297045648097992}, {0.04256916418671608, 0.16273073852062225, 0.15461380779743195}, {0.11554716527462006, -0.0045305355452001095, 0.08457493782043457}, {-0.07129731774330139, -0.14188967645168304, -0.09926310926675797}, {-0.051492784172296524, 0.07415584474802017, -0.004517572931945324}}, {{-0.1264333575963974, -0.17630568146705627, -0.15326610207557678}, {-0.11490359902381897, 0.17075379192829132, 0.04487775266170502}, {0.15640799701213837, -0.09220767766237259, 0.11603061854839325}, {0.11191742867231369, -0.1162772849202156, -0.04662231728434563}, {0.04836074635386467, 0.17126967012882233, -0.16569794714450836}, {-0.10421903431415558, 0.04867992550134659, 0.060739241540431976}, {-0.10626095533370972, 0.12907259166240692, -0.18622685968875885}, {-0.14868900179862976, 0.05688587948679924, -0.025501683354377747}, {-0.02324841171503067, 0.1589621752500534, -0.06381240487098694}, {0.12952303886413574, 0.14730337262153625, -0.15699881315231323}, {0.12500247359275818, 0.1334722936153412, 0.08022749423980713}, {-0.010780376382172108, 0.08629138767719269, 0.12676234543323517}}, {{0.09049949049949646, -0.12552997469902039, 0.13993874192237854}, {-0.18475671112537384, -0.09160010516643524, -0.059838589280843735}, {-0.12487925589084625, 0.05831325054168701, 0.021918609738349915}, {0.05615696310997009, 0.10574353486299515, 0.04346229508519173}, {0.016339359804987907, -0.01897580735385418, -0.06526853144168854}, {0.11321073025465012, -0.12821023166179657, 0.1038859412074089}, {0.1202506348490715, 0.10184745490550995, 0.11143260449171066}, {0.06744050979614258, -0.13398340344429016, -0.07864243537187576}, {0.03783387690782547, 0.16508159041404724, -0.043778881430625916}, {-0.11130288988351822, 0.16423213481903076, 0.15754784643650055}, {-0.04564661160111427, 0.0027730045840144157, 0.1483156830072403}, {0.058007098734378815, 0.08068004250526428, -0.18009020388126373}}, {{-0.10327804833650589, 0.14405271410942078, -0.05426884815096855}, {-0.12901274859905243, 0.03460779786109924, -0.1045597642660141}, {0.08553989231586456, -0.10028783977031708, 0.11066904664039612}, {-0.004901206120848656, 0.058827172964811325, -0.11212518811225891}, {0.16855788230895996, 0.08715261518955231, 0.04662149026989937}, {-0.013149895705282688, 0.006693776696920395, -0.14196927845478058}, {0.1394180953502655, -0.04124309867620468, 0.07156166434288025}, {-0.06862491369247437, 0.021140869706869125, -0.04445340484380722}, {0.12577082216739655, 0.004322976339608431, 0.11434000730514526}, {-0.01767219603061676, -0.1125641018152237, -0.016469795256853104}, {-0.15102164447307587, 0.10435151308774948, 0.039963800460100174}, {-0.10706910490989685, 0.0043665096163749695, 0.17505775392055511}}, {{-0.1371423900127411, 0.17234684526920319, -0.08350250869989395}, {0.06607528775930405, -0.0888722613453865, 0.0019511134596541524}, {-0.015147390775382519, -0.031088892370462418, 0.0003839550190605223}, {0.08988837152719498, 0.021545113995671272, -0.07407765090465546}, {-0.10506024211645126, 0.08588514477014542, -0.16138510406017303}, {0.045496292412281036, 0.008193095214664936, 0.07068534195423126}, {-0.042037490755319595, 0.12846866250038147, -0.007964139804244041}, {0.11668914556503296, 0.13012546300888062, 0.13804341852664948}, {-0.1053374782204628, -0.01832892931997776, 0.12636524438858032}, {0.04665367305278778, -0.1617928445339203, -0.09009023755788803}, {0.028543179854750633, 0.1421271562576294, 0.0539495013654232}, {0.08654440194368362, -0.16491660475730896, -0.10925851762294769}}, {{0.10687928646802902, -0.10898798704147339, -0.03357281535863876}, {-0.1467795968055725, 0.09820770472288132, -0.014359788037836552}, {0.06320075690746307, 0.15179745852947235, 0.11300620436668396}, {-0.14914552867412567, -0.07158439606428146, -0.05682206153869629}, {-0.08638733625411987, 0.16339325904846191, -0.021556181833148003}, {0.026310529559850693, 0.12308952212333679, 0.05166075378656387}, {0.18501152098178864, 0.06828056275844574, -0.011293361894786358}, {-0.03147017955780029, -0.11220136284828186, -0.09274329990148544}, {0.11800679564476013, -0.03272109851241112, 0.022694289684295654}, {0.019187165424227715, 0.04454413428902626, -0.1377107948064804}, {-0.04740041866898537, 0.15867289900779724, 0.015730591490864754}, {0.07041587680578232, -0.1067928746342659, -0.10124371945858002}}, {{-0.08281489461660385, -0.00530096935108304, 0.09646377712488174}, {0.19697141647338867, 0.030865998938679695, -0.05492513254284859}, {0.09475290775299072, -0.06541664153337479, 0.010354571975767612}, {-0.11000324785709381, 0.10812035948038101, 0.11028053611516953}, {-0.15437665581703186, -0.0019472087733447552, -0.08696235716342926}, {0.005967264529317617, 0.050526127219200134, 0.099098801612854}, {0.0035675775725394487, -0.07561322301626205, -0.035366423428058624}, {-0.054778680205345154, 0.1146598532795906, 0.1500917673110962}, {-0.09508680552244186, 0.14113587141036987, -0.02472527138888836}, {-0.02287607453763485, 0.079180046916008, -0.0026723570190370083}, {-0.10434369742870331, -0.06538505107164383, 0.1553094983100891}, {-0.06859424710273743, -0.10049372166395187, -0.06566242128610611}}, {{0.1406394988298416, -0.162668377161026, 0.12109731137752533}, {-0.11258263885974884, -0.0608656071126461, -0.10302994400262833}, {0.0904618427157402, -0.07781434059143066, -0.03210076689720154}, {-0.08872699737548828, -0.04899030551314354, 0.02952505834400654}, {-0.0873822271823883, 0.08033771067857742, -0.04563474282622337}, {-0.09382493048906326, 0.13896749913692474, -0.14190159738063812}, {-0.06705232709646225, 0.1388397067785263, -0.028199588879942894}, {-0.026395749300718307, -0.1371474266052246, -0.14805975556373596}, {0.0726904347538948, -0.059968288987874985, 0.05188269168138504}, {-0.021160580217838287, 0.14980214834213257, -0.09390538185834885}, {0.011960030533373356, 0.05554409325122833, 0.13973696529865265}, {-0.08817869424819946, -0.023635990917682648, -0.15353454649448395}}, {{-0.0022155670449137688, -0.06653779745101929, -0.09785399585962296}, {-0.04878268763422966, 0.0066574676893651485, -0.009804759174585342}, {0.11064328998327255, -0.02645845152437687, -0.147517129778862}, {0.13044346868991852, 0.03734266012907028, 0.05954498052597046}, {0.08672144263982773, -0.06454817205667496, 0.14030352234840393}, {0.15640869736671448, 0.1768437623977661, 0.022647282108664513}, {0.09046285599470139, -0.03284808248281479, 0.10067722946405411}, {-0.08532784879207611, -0.06444735080003738, -0.017185276374220848}, {0.007604232057929039, 0.07839919626712799, -0.04272494092583656}, {-0.05691445246338844, -0.17613327503204346, 0.1679879128932953}, {0.13766880333423615, -0.05987557768821716, 0.0698755532503128}, {0.030514484271407127, -0.04405944049358368, 0.08603609353303909}}, {{0.035493530333042145, 0.041593991219997406, -0.1540682017803192}, {0.10829901695251465, -0.060485273599624634, -0.005919154733419418}, {-0.1437538117170334, -0.041423920542001724, -0.1459144949913025}, {0.02182365208864212, 0.11274123936891556, -0.02568466030061245}, {-0.06967688351869583, -0.10453243553638458, -0.11251120269298553}, {0.13939277827739716, 0.07139516621828079, 0.06976382434368134}, {-0.10356618463993073, -0.11304052919149399, -0.061683546751737595}, {-0.016201062127947807, 0.03312224894762039, 0.11431597918272018}, {0.10396772623062134, 0.12879489362239838, 0.029217462986707687}, {-0.10257428139448166, 0.05251804739236832, -0.013489818200469017}, {-0.005015550646930933, 0.10680951178073883, -0.08204847574234009}, {-0.042843133211135864, 0.11707685887813568, -0.14801974594593048}}};
static float conv1d_3_bias[CONV1D_3_C_OUT] =  {0.14015240967273712, -0.07274361699819565, -0.1092347651720047, 0.1391981840133667, 0.09792939573526382, -0.007817056961357594, 0.003634319407865405, -0.15440814197063446, 0.048902060836553574, 0.11267618089914322, 0.11157961934804916, -0.1012435257434845};

static float linear_1_weight[LINEAR_1_C_OUT][LINEAR_1_C_IN] = {{0.011132930405437946, 0.05652010440826416, -0.024392593652009964, -0.013466127216815948, 0.009856549091637135, 0.029570182785391808, -0.0529094897210598, 0.0438789427280426, 0.04538266733288765, -0.009690406732261181, -0.020682500675320625, 0.0019503604853525758, 0.03966216742992401, 0.07700404524803162, 0.03528774157166481, -0.029470419511198997, -0.07349129021167755, 0.006035288795828819, -0.06699489802122116, 0.014491550624370575, -0.009842494502663612, 0.00325331324711442, -0.01308266632258892, 0.01048645656555891, 0.06268549710512161, 0.045071568340063095, -0.001001684577204287, -0.028020678088068962, 0.011765695177018642, 0.050601258873939514, 0.005999087356030941, 0.053398244082927704, -0.04235256090760231, -0.0268496572971344, -0.013084305450320244, 0.03358308598399162, 0.007113323081284761, 0.035609275102615356, 0.024716651067137718, -0.033760882914066315, -0.06189496070146561, -0.005198892205953598, -0.02475539594888687, 0.04657973721623421, -0.015568362548947334, 0.004117765463888645, -0.06726200133562088, 0.0010208404855802655, -0.04446545988321304, 0.02883690968155861, 0.002796983579173684, 0.006552465725690126, 0.01020093634724617, -0.016725964844226837, 0.03752150014042854, -0.05727323517203331, -0.03138698264956474, 0.018726063892245293, 0.0012238174676895142, 0.029760807752609253, -0.004581022541970015, -0.0377207025885582, 0.020744435489177704, -0.01587715931236744, 0.006383216939866543, 0.003819432808086276, 0.07144000381231308, -0.042888570576906204, 0.016305670142173767, -0.006770518142729998, 0.05671375244855881, -0.004712942522019148, 0.06298581510782242, -0.027204660698771477, 0.04234718531370163, 0.030482929199934006, -0.03214811161160469, 0.06294857710599899, -0.019890764728188515, 0.06159749999642372, -0.016560645774006844, -0.006185050588101149, 0.03721727430820465, -0.018021563068032265, -0.006168053485453129, 0.037392545491456985, 0.021731585264205933, -0.003372256178408861, -0.007793573196977377, 0.07059850543737411, 0.01613609492778778, 0.07650212943553925, -0.005361087154597044, -0.03146239370107651, 0.01651812344789505, -0.01959485188126564, 0.02149839699268341, -0.016295142471790314, 0.023479394614696503, 0.01921861432492733, 0.020853986963629723, -0.03304947912693024, -0.033288151025772095, 0.034220580011606216, -0.002965840045362711, -0.005024576094001532, 0.02992592379450798, 0.000567444134503603, -0.03213413804769516, -0.04004647955298424, -0.004643712192773819, -0.03281613811850548, 0.025763770565390587, -0.027673467993736267, -0.023087788373231888, -0.001843804377131164, 0.04110778495669365, 5.37182750122156e-05, 0.023577766492962837, -0.04443027079105377, -0.00041022233199328184, 0.04676925763487816, 0.036936204880476, 0.0643700510263443, -0.04811708629131317, 0.04089907556772232, 0.054935701191425323, -0.028212569653987885, 0.044602010399103165, -0.0598016083240509, -0.0014811466680839658, 0.003923479933291674, -0.028594328090548515, 0.013481506146490574, -0.003671318059787154, -0.0047445716336369514, -0.0310561154037714, -0.02497662603855133, 0.038039665669202805, -0.020966611802577972, 0.045119509100914, -0.0585392527282238, -0.050775494426488876, -0.051607538014650345, -0.0572102926671505, -0.00022591966262552887, 0.02821260504424572, 0.001748501555994153, -0.03454560413956642, 0.060639381408691406, -0.048293840140104294, -0.004060085397213697, -0.06120029836893082, 0.06660402566194534, -0.03144969418644905, 0.060035742819309235, -0.05833824723958969, -0.03162921592593193, 0.05210492014884949, 0.073494091629982, -0.02018863335251808, -0.044837452471256256, -0.043072547763586044, -0.054607708007097244, -0.02376294694840908, 0.04721519351005554, 0.0048370156437158585, 0.009987135417759418, -0.011916394345462322, 0.0399719662964344, 0.05424511805176735, -0.05450447276234627, -0.011958535760641098, 0.04100567847490311, -0.004811713006347418, -0.0414712131023407, 0.04809945449233055, -0.028651554137468338, 0.08163652569055557, 0.01305246353149414, 0.015704629942774773, -0.029637634754180908, 0.0441952608525753, -0.0021977259311825037, -0.05604898929595947, 0.026002971455454826, -0.0016973874298855662, 0.010186409577727318, 0.04261031001806259, 0.020463861525058746, -0.03145798295736313, -0.023141631856560707, 0.007379502989351749, -0.03221040219068527, 0.020878499373793602, -0.012488797307014465, 0.04129835590720177, 0.027690382674336433, -0.03598257899284363, 0.026717009022831917, 0.02315661683678627, 0.0449666865170002, -0.012036544270813465, 0.020478572696447372, 0.026779502630233765, 0.018705295398831367, -0.001948240795172751, -0.005527726374566555, 0.04439987987279892, -0.017687927931547165, 0.05156940594315529, -0.04248978942632675, 0.0177235696464777, 0.03195808082818985, 0.000955960014835, 0.009967627003788948, -0.03814404830336571, 0.04774482548236847, -0.0077190035954117775, -0.04723614826798439, 0.004088335670530796, -0.025767527520656586, -0.04616354778409004, 0.012142256833612919, 0.012835613451898098, 0.005518073681741953, -0.022365350276231766, 0.00602715415880084, -0.03221840411424637, 0.050065867602825165, 0.03243166208267212, -0.03919060155749321, 0.01554086059331894, 0.015030435286462307, 0.05409470200538635, -0.046241115778684616, -0.0008921955013647676, -0.027809418737888336, -0.03558465465903282, 0.032881736755371094, -0.0139611242339015, 0.0203081164509058, -0.0003172063734382391, 0.0006538789602927864, 0.013206640258431435, -0.005223674234002829, 0.020233752205967903, 0.038514457643032074, -0.038636233657598495, -0.06626355648040771, 0.027461837977170944, 0.02359006367623806, 0.012974961660802364, -0.021497603505849838, 0.048520077019929886, -0.05053038150072098, -0.01702907122671604, 0.014038016088306904, 0.05646982043981552, -0.020775357261300087, 0.016815954819321632, -0.006215523928403854, 0.05301550403237343, -0.008426651358604431, 0.04707852378487587, 0.024371566250920296, 0.019402291625738144, 0.0038671463262289762, -0.03312268480658531, -0.04646694287657738, 0.04007382690906525, 0.04413602128624916, 0.05342661216855049, 0.02938258834183216, 0.04226071387529373, 0.029435917735099792, 0.058619365096092224, -0.00558995408937335, 0.0070371781475842, -0.05178750678896904, -0.023791640996932983, -0.011360247619450092, 0.013434331864118576, -0.0031193909235298634, -0.04468647390604019, 0.05455389246344566, -0.05508100986480713, -0.0380299910902977}, {0.0023126360028982162, 0.016488393768668175, -0.039461296051740646, 0.04150097817182541, 0.07377209514379501, 0.026196366176009178, 0.0064394776709377766, 0.020802970975637436, -0.013491367921233177, -0.010653668083250523, 0.052657656371593475, 0.0461481474339962, -0.009168014861643314, 0.04719381034374237, -0.008725068531930447, 0.015406455844640732, 0.05488819256424904, -0.01329811755567789, 0.06152678281068802, -0.03301393613219261, -0.04561737924814224, -0.01633361540734768, 0.06229200214147568, 0.074140265583992, 0.013844775967299938, -0.035921860486269, 0.0016493963776156306, 0.04866021126508713, 0.01704419031739235, 0.05060526728630066, -0.017295299097895622, -0.02317241206765175, 0.029987258836627007, 0.022456344217061996, -0.039892204105854034, -0.052254389971494675, 0.03929634019732475, -0.046352319419384, -0.032494816929101944, 0.060092516243457794, -0.042206063866615295, 0.0025561421643942595, -0.03836027532815933, 0.06862843036651611, 0.0033380743116140366, -0.013532882556319237, -0.029806658625602722, -0.0573972687125206, 0.020275520160794258, -0.05702688917517662, 0.06581935286521912, -0.02299322746694088, -0.023405158892273903, -0.0009735997882671654, 0.00722463009878993, -0.016521157696843147, -0.04195700213313103, 0.031653597950935364, -0.042734019458293915, -0.014751630835235119, 0.011023113504052162, 0.01472544390708208, 0.09200167655944824, 0.009910364635288715, 0.019140318036079407, 0.04192766919732094, 0.004505102057009935, 0.03438768535852432, -0.04780692607164383, -0.029972294345498085, 0.018864398822188377, 0.07198832184076309, 0.002300495281815529, 0.07450340688228607, -0.002010060241445899, 0.07533831894397736, 0.014286516234278679, -0.06507635116577148, -0.017478320747613907, -0.039528071880340576, -0.05793270468711853, 0.019852153956890106, -0.01854598894715309, 0.013815363869071007, -0.03358399495482445, 0.07687953859567642, -0.03143789619207382, 0.06062917783856392, -0.002474293578416109, -0.05445108935236931, -0.028131846338510513, -0.03372874855995178, 0.036905866116285324, -0.02198992669582367, 0.06660334020853043, -0.053493913263082504, -0.0004674301017075777, 0.04643571004271507, -0.016019174829125404, -0.005815004464238882, -0.022250253707170486, -0.01155128050595522, 0.01818286068737507, -0.04074107110500336, 0.037266023457050323, -0.006068043876439333, 0.003933066036552191, -0.052487894892692566, 0.033003199845552444, -0.04596620425581932, -0.013816804625093937, 0.014956686645746231, -0.05152598395943642, 0.06213076040148735, 0.02186562493443489, -0.037765972316265106, -0.043202366679906845, -0.037373632192611694, -0.0061051324009895325, -0.013083091005682945, 0.009916763752698898, -0.008579262532293797, 0.045909978449344635, -0.03181885555386543, -0.03157680109143257, -0.005276041105389595, -0.06236232444643974, -0.018950555473566055, -0.04205119237303734, 0.05400923267006874, -0.018459705635905266, 0.05518695339560509, 0.03976903110742569, 0.026881493628025055, -0.045219507068395615, -0.04064858332276344, -0.0021537395659834146, 0.02412826381623745, 0.046998217701911926, 0.0404457151889801, -0.056170754134655, -0.02353942021727562, -0.017769718542695045, -0.014002244919538498, -0.02104845643043518, 0.05906979739665985, 0.06885366141796112, 0.03399008885025978, -0.01639765501022339, -0.04458407685160637, 0.0052886963821947575, -0.018276730552315712, 0.012866072356700897, 0.0017535964725539088, -0.005845502484589815, 0.014509621076285839, -0.00304825184866786, 0.027552057057619095, -0.04176466166973114, -0.07257509231567383, -0.04301478713750839, 0.054296381771564484, -0.013232611119747162, -0.0062329149805009365, 0.02665238082408905, 0.01678975485265255, 0.045839834958314896, 0.0422675721347332, -0.0532824844121933, 0.055044036358594894, -0.05444295331835747, 0.019874917343258858, 0.02643032930791378, 0.016931405290961266, -0.03310612216591835, -0.03242304548621178, -0.046047504991292953, -0.02966470643877983, -0.05652850493788719, 0.026169894263148308, -0.05969543009996414, -0.055038806051015854, 0.05378669500350952, 0.04727339744567871, -0.03549781069159508, 0.009649660438299179, -0.022636685520410538, 0.04504583030939102, 0.056375958025455475, -0.034380994737148285, -0.03317321091890335, 0.01932627148926258, 0.010865424759685993, 0.057364948093891144, 0.04174869880080223, -0.0570925697684288, -0.015610174275934696, 0.011944991536438465, 0.02248173952102661, 0.0021084975451231003, -0.011575394310057163, 0.005735842045396566, 0.02751769870519638, 0.04575474560260773, 0.0337214395403862, 0.017313238233327866, 0.002035160083323717, 0.02301376312971115, -0.044217485934495926, 0.03691241517663002, -0.025488344952464104, 0.07279075682163239, -0.011442193761467934, -0.02373509481549263, -0.03016923926770687, 0.03294466808438301, -0.023039719089865685, -0.026511356234550476, -0.02705935388803482, -0.019858265295624733, 0.05366832762956619, 0.03585965558886528, -0.03156750276684761, 0.04940948262810707, 0.023178517818450928, 0.056070879101753235, -0.008187375962734222, 0.020026544108986855, -0.030212875455617905, -0.028568711131811142, -0.04715786129236221, -0.020352523773908615, 0.05000276118516922, 0.04160416126251221, -0.002209980972111225, 0.0060577658005058765, 0.028207747265696526, 0.05368385463953018, 0.04376039281487465, 0.024671029299497604, 0.07540304958820343, -0.04604140296578407, -0.004199818708002567, -0.0035993242636322975, -0.018813734874129295, -0.02968655712902546, 0.006193934939801693, -0.021322863176465034, 0.0120474211871624, 0.09073328226804733, 0.05835822597146034, 0.04053241014480591, 0.048942241817712784, -0.0196146871894598, -0.017981823533773422, -0.016648340970277786, -0.0015708814607933164, -0.037419501692056656, 0.03330467268824577, -0.03420542553067207, 0.035269998013973236, 0.07086223363876343, -0.016016459092497826, 0.003799455938860774, 0.021057313308119774, 0.044821303337812424, -0.02135315351188183, -0.04528099671006203, 0.05063202232122421, -0.006479205563664436, 0.03521060198545456, -0.019620738923549652, 0.0027034629601985216, -0.04487030208110809, -0.027842877432703972, 0.03863626718521118, -0.019067350775003433, 0.003176369471475482, 0.03208409622311592, -0.006999670527875423, -0.003939831629395485, -0.027857625856995583, 0.024134531617164612, 0.05382177606225014, 0.029289398342370987, -0.03495469316840172, -2.3853828679420985e-05, 0.0075147696770727634}, {-0.017161432653665543, 0.012567341327667236, 0.05284784734249115, 0.04155978187918663, 0.050851330161094666, 0.019052492454648018, -0.015195971354842186, 0.007933314889669418, 0.0927920863032341, 0.042225684970617294, 0.060849592089653015, 0.02839525416493416, -0.013610102236270905, -0.04039217531681061, 0.09116961807012558, 0.011596000753343105, -0.020249255001544952, 0.04751172289252281, -0.005690316669642925, -0.0020278366282582283, 0.01926925592124462, 0.023925263434648514, -0.0006236154004000127, -0.013836799189448357, -0.06369829922914505, 0.02108944021165371, -0.028013581410050392, 0.009170012548565865, -0.005011688452214003, 0.05237129330635071, -0.033134061843156815, 0.03715924918651581, 0.0010786111233755946, 0.03269100561738014, 0.0847776010632515, 0.06076628342270851, 0.005842417944222689, -0.04490109905600548, -0.038235947489738464, -0.018770389258861542, -0.024739988148212433, 0.00843378808349371, 0.04400632530450821, -0.0008462052792310715, 0.0730549544095993, -0.007605123799294233, -0.01681550219655037, 0.009282568469643593, -0.012984439730644226, -0.053147077560424805, 0.009953980334103107, 0.03326280415058136, 0.006573650054633617, 0.03416527807712555, -0.030100524425506592, 0.04763473942875862, -0.007351603824645281, 0.05132533237338066, -0.04372701048851013, 0.039386212825775146, -0.013038567267358303, 0.009406274184584618, -0.023839764297008514, 0.06771533191204071, 0.03035927750170231, 0.01569811999797821, 0.02953193709254265, -0.023002834990620613, 0.028784306719899178, 0.04107335954904556, -0.0057108742184937, 0.005032452754676342, -0.025754215195775032, -0.057967618107795715, 0.020559905096888542, -0.009817523881793022, 0.0032646828331053257, 0.041309915482997894, 0.05202425271272659, 0.021962128579616547, 0.00479340273886919, -0.025876889005303383, 0.050436701625585556, -0.042900171130895615, -0.04944557696580887, 0.03610064089298248, 0.058453794568777084, -0.009533270262181759, 0.06827197968959808, -0.0202789306640625, -0.018420003354549408, -0.04969343543052673, 0.012105570174753666, -0.017515964806079865, -0.020537877455353737, 0.003862774698063731, 0.045070450752973557, 0.06119285523891449, 0.0033214278519153595, 0.0028122293297201395, -0.019605861976742744, -0.05240679904818535, 0.017292842268943787, -0.015875959768891335, -0.01329873502254486, 0.02337188459932804, 0.03736390918493271, 0.041400305926799774, -0.016448628157377243, 0.027897704392671585, -0.008129286579787731, 0.08559761196374893, -0.0015334445051848888, 0.003444127505645156, -0.023080183193087578, -0.04536763206124306, 0.02953905425965786, 0.02031879499554634, -0.03413054719567299, 0.07795035094022751, 0.016513681039214134, -0.043212343007326126, 0.0024272508453577757, 0.05451135337352753, -0.05419609323143959, 0.02427726238965988, -0.030287152156233788, 0.015676064416766167, 0.019882742315530777, 0.0018463797168806195, 0.025477971881628036, 0.03620721772313118, -0.029531512409448624, -0.016292858868837357, -0.008496887981891632, -0.002643401036038995, -0.05059950426220894, -0.017835237085819244, 0.014391749165952206, -0.007417916785925627, 0.06504492461681366, 0.060465551912784576, -0.03835012763738632, -0.018860599026083946, 0.0828656330704689, -0.022643055766820908, 0.029844442382454872, 0.0043310439214110374, 0.04266679286956787, -0.024585451930761337, 0.03330900892615318, 0.026300206780433655, -0.006774174980819225, 0.0022104408126324415, 0.0407472625374794, -0.018312204629182816, 0.0601443275809288, 0.040041208267211914, 0.036895934492349625, -0.01731298305094242, 0.04272465407848358, 0.011833282187581062, 0.04342115297913551, 0.018683351576328278, 0.03470733016729355, 0.00618175882846117, 0.02145802602171898, -0.009539653547108173, -0.052898284047842026, 0.009368248283863068, 0.05663566291332245, 0.062293827533721924, 0.0429651215672493, 0.031739600002765656, -0.0012532513355836272, -0.039430875331163406, 0.01722610928118229, -0.0005852169706486166, 0.01748589053750038, 0.03232849761843681, -0.05739431828260422, 0.0024474828969687223, -0.014904252253472805, 0.034606777131557465, 0.014061592519283295, -0.04381651058793068, -0.01812470331788063, -0.047315679490566254, -0.00746558140963316, -0.047635070979595184, 0.01834382675588131, 0.05740746483206749, 0.057562775909900665, -0.05409059673547745, 0.03928910940885544, -0.021820180118083954, 0.02386421337723732, 0.001219133846461773, -0.0024051577784121037, 0.030831972137093544, -0.01644664630293846, -0.025243742391467094, 0.0037290852051228285, -0.051974572241306305, 0.008257132954895496, 0.0181074570864439, 0.04586363956332207, 0.022408412769436836, 0.05814281851053238, -0.03021407686173916, 0.005050256382673979, -0.038577962666749954, 0.003750310745090246, 0.0011832097079604864, -0.032215457409620285, 0.006016989704221487, -0.0307907834649086, 0.0544661246240139, -0.05049794167280197, 0.03504997491836548, -0.03623420372605324, -0.022699322551488876, 0.004501711577177048, -0.04330650717020035, -0.003941421862691641, 0.0445745475590229, 0.02731965109705925, -0.04698857665061951, -0.01372626144438982, -0.03629928082227707, 0.03933722898364067, 0.006937231868505478, 0.003658393630757928, -0.0546565055847168, -0.04631436988711357, -0.0011114031076431274, 0.04922427982091904, -0.058620162308216095, 0.044983454048633575, -0.0532182939350605, -0.03438078984618187, -0.046542540192604065, -0.01859527826309204, 0.015790529549121857, -0.01724429242312908, 0.03252405673265457, 0.02499881386756897, 0.04110708087682724, -0.017158981412649155, 0.004350838251411915, -0.03907117247581482, -0.0652599185705185, -0.009760305285453796, 0.02520289272069931, -0.0019323419546708465, 0.06387541443109512, 0.02891848422586918, 0.05108403414487839, -0.03197818621993065, 0.04916035383939743, -0.02065238170325756, 0.03336358070373535, -0.009232870303094387, -0.051468104124069214, 0.043514434248209, -0.019512997940182686, 0.03623814135789871, -0.03809426352381706, 0.00843763630837202, 0.006021235603839159, -0.03564462065696716, -0.021673984825611115, 0.03752024844288826, -0.026766957715153694, -0.0419454388320446, -0.005474679637700319, -0.006502974778413773, -0.01292842160910368, 0.034074120223522186, -0.026877574622631073, -0.0578727126121521, -0.005767166148871183, -0.053987324237823486, -0.03692551702260971, -0.01724419929087162, -0.021757211536169052, -0.041904233396053314, -0.027048131451010704}, {0.008746261708438396, 0.01628577895462513, 0.057730793952941895, 0.019646769389510155, 0.024414073675870895, -0.046241968870162964, 0.0659283921122551, -0.034808408468961716, -0.0471125990152359, 0.04079617187380791, 0.024758415296673775, 0.05186772719025612, 0.028210613876581192, -0.036898888647556305, 0.03168468922376633, 0.01100211776793003, 0.005959119647741318, -0.0435216948390007, 0.038147784769535065, 0.022175798192620277, -0.02274620532989502, 0.039393242448568344, 0.021172916516661644, -0.0369812436401844, -0.027135156095027924, 0.04636918753385544, 0.04622215777635574, -0.020732346922159195, -0.024480121210217476, -0.07054242491722107, 0.019024258479475975, 0.017949840053915977, -0.0343451164662838, -0.002270946279168129, -0.013558534905314445, -0.029033616185188293, 0.005871432367712259, 0.04794514924287796, -0.0015708338469266891, -0.05228906124830246, 0.07522688060998917, 0.014007027260959148, -0.004491967614740133, -0.021713534370064735, -0.008999844081699848, 0.06922377645969391, -0.037580039352178574, -0.03759324923157692, -0.006584921386092901, 0.029411541298031807, -0.020022323355078697, -0.0431680791079998, -0.06754723936319351, 0.05524824559688568, -0.002811121055856347, -0.012953609228134155, 0.039768483489751816, -0.028713293373584747, 0.047625523060560226, -0.03776349872350693, -0.05759899690747261, 0.010086863301694393, 0.020826581865549088, 0.014391383156180382, 0.020081788301467896, -0.014631577767431736, -0.08250696212053299, 0.06314026564359665, 0.0615590400993824, 0.04496294632554054, -0.019503287971019745, -0.06219860911369324, 0.06289848685264587, -0.03515569865703583, -0.002579767256975174, -0.02446158602833748, 0.0055061401799321175, 0.009701830334961414, 0.016039464622735977, -0.028217289596796036, -0.04010951146483421, 0.0730431005358696, -0.03937942162156105, -0.019031260162591934, 0.0350007526576519, -0.021613100543618202, 0.024782836437225342, -0.06116444617509842, 0.03513767942786217, 0.03244709596037865, 0.04621491581201553, 0.0007825680659152567, 0.05324004217982292, 0.07779107242822647, -0.07686946541070938, 0.04316562041640282, -0.0053997826762497425, -0.05387483909726143, 0.00018887629266828299, 0.026921818032860756, -0.019121922552585602, 0.03440353646874428, -0.02395683340728283, 0.04413033649325371, -0.08929628878831863, 0.017931247130036354, 0.003406326752156019, -0.04139532521367073, 0.0026158939581364393, 0.004794341046363115, 0.0210323017090559, 0.006019912660121918, 0.0588628351688385, -0.03933225944638252, -0.003641384420916438, 0.01941053755581379, -0.018741093575954437, -0.005595908500254154, 0.010688927955925465, 0.02938085049390793, -0.010712041519582272, -0.023892490193247795, -0.05194360017776489, -0.03868516907095909, 0.020571447908878326, 0.006529883481562138, -0.05854285508394241, 0.05448002368211746, -0.011112428270280361, 0.001303181517869234, -0.019025292247533798, 0.026251809671521187, 0.061493538320064545, 0.03886546194553375, -0.02875611186027527, 0.052080586552619934, 0.041466109454631805, 0.04247427359223366, 0.013033346273005009, 0.027696995064616203, -0.04589756950736046, 0.009990083985030651, -0.0032674516551196575, 0.01244703121483326, 0.03907584771513939, 0.04188269376754761, 0.022082494571805, 0.02377808839082718, 0.019127478823065758, 0.050842735916376114, 0.01030774787068367, 0.05408773198723793, 0.07586602866649628, 0.006940630730241537, -0.03791448101401329, -0.005970099940896034, 0.037746887654066086, -0.03582977131009102, -0.023730603978037834, 0.01215264294296503, 0.02788653038442135, 0.025055671110749245, -0.004670200869441032, 0.00023072067415341735, -0.016198506578803062, -0.03902249410748482, -0.03678327053785324, -0.0256817564368248, -0.0010315758408978581, 0.006445959210395813, -0.04176192730665207, -0.03587068244814873, 0.03775604069232941, 0.03622330725193024, -0.0543864406645298, 0.06271462142467499, -0.041982315480709076, 0.04734252393245697, 0.008655528537929058, 0.02446024864912033, -0.001364672789350152, 0.04978892207145691, -0.01418730802834034, 0.054459765553474426, -0.031814608722925186, -0.022701606154441833, 0.02386101521551609, 0.06604708731174469, -0.05666784569621086, 0.010523960925638676, -0.062043506652116776, -0.03364717960357666, 0.007241394370794296, -0.034776221960783005, -0.03860219940543175, 0.03390724956989288, 0.003303915960714221, -0.025638841092586517, 0.026862522587180138, 0.01671574078500271, 0.016023941338062286, -0.04519427940249443, 0.04108257591724396, -0.046204984188079834, 0.05832329019904137, 0.007159529719501734, -0.04466824233531952, -0.021249638870358467, -0.001677353517152369, -0.012799492105841637, -0.022242359817028046, -0.05372871086001396, -0.024878449738025665, 0.021276982501149178, 0.06557241082191467, -0.04993601515889168, -0.03253747150301933, 0.007259571459144354, -0.014117156155407429, 0.006213964894413948, -0.012951314449310303, -0.010732941329479218, -0.05539629980921745, 0.022592337802052498, -0.025881413370370865, 0.03283587470650673, 0.009658589959144592, -0.04220200702548027, 0.046718575060367584, -0.0045640841126441956, -0.015328756533563137, 0.020086538046598434, -0.04578511789441109, -0.017778903245925903, 0.014608660712838173, 0.03600534424185753, -0.013174525462090969, -0.011914296075701714, -0.033243726938962936, -0.0321379117667675, -0.03019491583108902, -0.01700720377266407, -0.06454770267009735, 0.01932639814913273, -0.0028479930479079485, -0.002787251491099596, 0.0036253465805202723, -0.03128134459257126, 0.030122855678200722, -0.0076325335539877415, 0.03026140108704567, 0.007688689045608044, 0.0011585609754547477, 0.04714489355683327, -0.017314018681645393, -0.031825922429561615, 0.009347308427095413, 0.06529343873262405, 0.0191436056047678, -0.05581406503915787, 0.06885108351707458, 0.03893998637795448, 0.04132436588406563, -0.010074310004711151, -0.0320567861199379, -0.02259586751461029, 0.028962494805455208, -0.046875882893800735, -0.04697079211473465, -0.05946757271885872, 0.01747817173600197, -0.05403074622154236, 0.021859409287571907, 0.01527940109372139, 0.022578764706850052, 0.015252032317221165, -0.04064224660396576, 0.028588254004716873, 0.0026750110555440187, 0.028004873543977737, 0.021050667390227318, 0.007981772534549236, 0.033482808619737625, 0.014243529178202152, 0.03635414317250252, 0.020709101110696793, 0.06143992394208908, -0.047152433544397354}};
static float linear_1_bias[LINEAR_1_C_OUT] = {0.016929991543293, -0.00023714042617939413, 0.0132660623639822, 0.00988194439560175};

#define TOUCH_BUTTON_NUM    13
#define TOUCH_CHANGE_CONFIG 0

#define THRESHOLD 50000

static const char *TAG = "touch read";
static const touch_pad_t button[TOUCH_BUTTON_NUM] = {
    TOUCH_PAD_NUM1,
    TOUCH_PAD_NUM2,
    TOUCH_PAD_NUM4,
    TOUCH_PAD_NUM5,
    TOUCH_PAD_NUM6,
    TOUCH_PAD_NUM7,
    TOUCH_PAD_NUM8,
    TOUCH_PAD_NUM9,
    TOUCH_PAD_NUM10,
    TOUCH_PAD_NUM11,
    TOUCH_PAD_NUM12,
    TOUCH_PAD_NUM13,
    TOUCH_PAD_NUM14
};